pid,AD,CIT,SW
37,-0.026946884143574077,0.8862791241776287,0.3705740733950787
38,-0.07704483307723159,0.16370130518862672,-0.03279588187909985
39,0.031261279036832734,-0.11781967594640004,-0.3024759203382307
40,-0.12123142737993621,-0.7117346767228359,0.6207152394013753
42,-0.22794153344887655,-0.5540744805932234,0.056897366611151995
43,0.07754012968530405,-0.8137883480035921,0.11976360032638628
44,0.3351098098413914,0.14188398196584467,0.6124209320009064
45,-0.5080208615248384,-0.9678769706876039,0.2892616172607153
46,0.2347896819131461,1.506045655346354,1.1700737720402947
47,-0.222111117835857,0.5555383081018688,-0.7313297660624856
49,-0.08795587935741392,0.4296455455731901,0.3100094101870086
51,0.17128319863241923,0.8243790760941752,-0.39950119761426794
52,0.3085340322122466,0.5424995845540701,0.7506683529126922
54,0.38452694845210944,1.038909236100049,0.5462051844088476
56,-0.22016571471838808,0.19170480835063744,0.08771990168882113
57,0.25234911590976966,1.3689710450893051,1.3280932262954228
58,0.13631256826817215,-0.5562021022958612,-0.9374982237635425
59,0.257858366846372,-0.306155759954526,-1.3998816281332616
60,-0.018104127280815285,-0.2793264590793749,0.2316021688476262
61,-0.6213937207547995,-0.3956721053047359,-0.04092185485620141
63,-0.27601535933756066,0.4746134250713572,1.29796194985517
65,0.3026855557240255,0.86643890224475,0.7374981703568104
66,0.16510428031631408,1.3292625761084709,0.707161333700718
67,-0.5004821780170285,-0.892866096681492,-1.669842367184584
69,-0.567886710542763,-0.9756397180884221,-1.6850960182493298
72,0.4846549630015562,0.3275852867712588,1.2146835186584757
74,-0.4306940739697178,-0.500143111800746,-1.6850960182493298
75,0.7644332074630649,2.371547986433308,0.07576871351247311
76,-0.6288260493902202,-0.13899686303654946,0.1088314917776267
77,0.3759445467847702,1.7690467855141492,1.2646847725974704
78,0.14539182270209713,1.3470918555567903,1.3056414691729232
79,-0.27462712429549935,-0.9459334078596309,-0.5842654308637172
80,0.7150909788199502,0.660424979829189,0.8521397131941805
81,-0.5112604885749166,-0.7649671754912799,-1.3220522838749202
84,0.4859205194863988,1.0242088085452925,1.1567241869806506
86,-0.5597385075540766,-0.8297790100836782,-1.6850960182493298
87,0.46525058971606714,0.49635826242978176,0.9055098086013154
89,0.008352285677562216,-1.0841014061734533,-0.12129562516950665
91,-0.6846622259991322,-0.8041134824821792,0.9809428148990552
92,-0.40100265637135296,-0.4470136392618827,-0.5117288623382741
93,0.0643666637591333,1.117561217435068,0.7239338525272602
95,-0.1381192580150798,-0.4794057822857048,-1.023607937491217
96,-0.6464985043793431,-0.6008063338347014,-0.04497421155024983
98,0.6456148781357326,-0.12961800364246234,1.0694559064195932
99,-0.39817033644689287,-0.4589208220354474,-0.941330649928832
100,-0.2698531758401042,-0.39572882815895033,-0.2503374020137881
101,0.34920411164204634,-0.39146634818758747,0.11797965308188282
102,-0.7550291607643582,-0.7437987618692787,-0.9905390921346109
104,-0.1324785931021003,-0.16824426199768414,0.12962638706749463
105,-0.0058118100570109625,-0.7745589115424667,0.25101598211844056
108,0.361897544167613,0.14033533334489992,-0.6480764781660358
109,0.22728568837199617,0.2930964611802254,-0.7401735410096759
110,-0.7510708683460261,-0.6639503487661301,-1.669842367184584
111,-0.13931056175770895,-0.4393337771043186,-1.0892170500263987
112,-0.4408725282655441,-0.8396869686842621,-0.8382368567491668
113,-0.576745164692368,-0.6411127441136635,-1.2459151779441784
114,-0.10271038165865662,0.5040581609614051,1.075994189325213
116,0.0786915693594328,0.7830086323220035,-0.11380171332401998
117,0.5708031669554532,0.3301238312826147,0.05812190281562116
118,-0.03225649971753611,-0.699872361211527,-1.1312504788087032
120,0.7884620609082039,-0.15662177291392684,0.055820667653323164
121,0.537037185125589,0.2515831645675885,0.8099033544284477
122,0.11243417370643576,0.9010604858034097,-0.764436722020253
123,-0.03465733440386498,0.7530372678125415,1.2724613580941675
124,-0.10101002209341321,-0.3001395793099792,0.08641574727811782
125,0.825716984071788,2.316513093364569,-1.6161203861924958
126,-0.2027537813474623,-0.621077792430947,0.22013508931436926
127,-0.6902549314598958,-0.9057329172973172,-0.6408092378971455
128,-0.6069311605129947,0.5509543206840447,-0.1969852870128579
129,-0.2071851544359099,1.159394581914684,1.3576358284336587
130,-0.3309264385519575,0.7975601599874431,0.7191741036378545
133,0.16194140980867644,0.3470543179085749,-0.34249349831271847
135,-0.20305089378809962,-0.5043000742847625,-0.1819194939868828
136,-0.27745533097099495,0.10575736461513348,0.4500003904868937
137,0.39478636152729346,-0.5045454153095215,-1.0186368030207955
139,0.07729750371449004,0.049195980534590275,-1.2363296760749933
140,-0.21436619606166588,-0.00789081382665708,0.9718440260826784
141,0.15118520018566883,0.37136472560043743,0.2711801494631252
142,0.10266737048417379,1.1586994734067928,-0.2883788481748415
143,0.4370842861030503,0.32985583876407226,-0.646832994466212
145,0.9370905443371222,0.41135408333278256,1.031868614512538
147,0.03779380089921319,-0.23792286653399752,-0.5788791108251047
148,0.3038743347057656,0.42629680673054443,0.03525833212341351
149,-0.07283663658720385,0.5887116658711404,1.0982459558846092
151,-0.500619387050123,1.5586569878445458,-0.574428259179598
152,-0.32813295912028945,0.17025468282962197,-0.2258547276989505
153,-0.32003788585321036,-0.7013414934827681,-0.9861208278466322
154,0.4979654040799403,-0.3178276079860868,-0.8677688853588894
156,0.49308308470659457,0.3146090930516129,-0.12395938497095527
157,-0.4443115721768746,-0.23392577131568457,-0.09824244564510234
159,1.1059615255457895,1.6020415012055684,1.4559144920924407
163,0.16636580036043902,-0.1569234260716892,-0.5256301608094864
164,-0.5122582489980826,-0.9662822574287471,1.1191162044600658
167,0.36623463006114765,0.5737208794210087,-0.36104539066936503
171,-0.01090091094582038,1.0533178441303572,0.9606981800915121
172,-0.4260161309704824,-0.589223108309637,-0.8045525536731414
175,-0.6999657585475085,-0.4112821529103293,-0.5912403776981934
177,-0.3189007337329307,0.5533408625262015,-0.0312123855452745
178,-0.18670654356429173,1.8040941923666267,0.9924493862567
182,0.07624945671220651,0.8951786815525604,-0.1979802968981207
183,-0.15256263643582385,-0.08459364769993652,-0.3848377389604972
184,-0.3599377992378831,0.2638020438387593,-1.3137732034271012
185,-0.2626830243460829,-0.9426233198340119,-1.2270822446093321
186,-0.37546039544695015,-0.42759645846287336,-0.9186178705377563
188,-0.3326643937673736,1.2858343536012966,0.4714216729437775
189,-0.12021007687684807,-0.3700671144407751,0.34884293676547395
190,0.13647760392101946,1.4437658213843305,0.422267535810983
191,0.5010295052847251,2.44189717101359,0.49586979714263224
192,-0.8147047752977111,-0.6658768111636748,-0.6276229463197747
193,-0.03639124555849829,-0.1685771059632354,0.6143996402860692
195,-0.0586596682980078,0.1253812609559353,0.09343295975805804
196,0.16981613007223173,0.726435303880466,0.6383960127904372
198,-0.11068457092955714,-0.269611221425018,1.025582041053169
199,-0.08300001161987183,1.2271903450523454,0.05568057639072391
200,0.24973597286722296,1.4320274565164897,0.6273299593669699
201,0.17352048493121022,0.9549197588887455,0.5815637071476587
203,-0.5655805318560008,-0.9282138989688301,-1.392237920313987
206,-0.21329601973796297,0.7569142159275826,0.2999726854737278
207,-0.06583135443625387,-0.30880115895410687,0.32125251510868724
208,0.6813198378358194,-0.7360860408657406,0.8557498790945323
209,0.013252476413883024,0.5516018878679306,0.7446604162267173
210,-0.3727390369778176,-0.21959547724289794,1.4315893012218122
211,-0.25343336569008723,-0.74154351469267,-1.144830413132504
212,0.047075910741921606,-0.021334926472928797,-0.5550015720688132
213,-0.3493690699867515,-0.4117888137883658,-1.086796684761328
216,-0.49585996597468246,-0.6730360391703198,-0.9210690730407196
217,-0.2962400196547218,0.1955080664487387,-0.3007379026117869
219,-0.27560976671181253,-0.5793231291946829,-0.6678288691488492
220,-0.25361432881961943,-0.4468938819796217,-0.12239901251010522
221,-0.131435741609288,-0.3444510405431657,-0.5896527388204188
222,0.22028310011522703,-0.08028668534929372,-0.6828861754845553
224,-0.3095578643171048,-0.15663381417095873,-0.8406671477430943
230,0.060662620263400774,-0.07749077992926214,-0.7002288874860915
231,-0.33543622510152965,1.4381583015803199,0.2697364759841028
232,0.38510954184264984,0.5437265297789525,0.14974958910984093
236,-0.3406517697313531,0.850390934793741,-0.720520268872637
238,0.06157362062486743,-0.15541795544895418,-0.24998116557322128
240,0.3478431837969641,-0.5291157893569829,0.8588124195818225
241,0.24440798372786124,1.1599025365558828,1.179348820857885
242,0.18536153498114516,-0.07493991928900559,0.4704761437392637
246,-0.0030920867751433045,0.24130907897987502,-1.5163613311766055
247,-0.7382350840259458,0.051922271445847365,0.4607691624722256
249,-0.6057404079438848,-0.6469497755889302,0.6406878445250767
250,0.016135506139633937,0.5979958728787431,-0.4924881552952525
251,0.9470233377123425,-0.5690326528944681,0.8452556651349425
252,-0.7720706483770281,-1.1711981890019703,-1.4075743112800412
254,-0.09915616806650072,-0.06713959037830397,-0.47673461441095444
255,0.10304922086578533,-0.6499132927597594,-0.07061764647417346
256,0.5232219642828528,-0.5475169065463825,1.4701464102971034
257,0.3252441817473844,-1.0709257799837055,-0.7219473349326445
258,0.010287920743973,-0.036148187330013515,-0.7334670144581505
260,-0.802844113390601,-0.6384216437864578,-0.9239366960522402
262,-0.40923080279055746,-0.18600566214489195,0.09286442860256947
263,-0.36953967110614916,-0.06337071329443605,-1.1559118331211664
264,-0.6181511490861991,-1.1530055206197707,-1.6850960182493298
266,0.3901820183750556,0.2735772904751325,0.16664736565465704
267,0.5327770501473033,0.547942893327721,-0.7536857396782746
268,0.12690257034471875,0.04472570967646575,-0.1564624263860452
269,0.3165714229490275,0.2384274234524325,0.5749113973300418
270,-0.8443954931001711,-0.953622195155529,-0.06039189082853008
271,-0.26580311800681017,-0.9533143772125614,-1.184324746669822
272,0.25031870856977534,-0.03647283343188286,0.22984424060240657
273,-0.42510870102492765,-0.9872978638275958,1.4116472173139634
274,0.7723695506491022,1.5718065141470894,0.9532786431655981
275,-0.28464967612853587,0.5545205420056831,-0.19047638831563948
276,0.0829438642835647,-0.364296546123014,-0.46197680255940776
277,-0.6187021096583545,0.6572113928041595,0.38642537585820386
278,-0.22283751286069317,1.1393655351213814,-0.13743093900855982
279,0.7137056637313703,0.18450675109182316,1.442259463995786
280,-0.08213838391930317,0.2234663901737363,-0.3880194612633497
281,-0.383749859516856,-0.6388339981152963,-0.22648245878446568
282,-0.1989102070538063,-0.6920938679170521,0.43129780356105907
283,-0.36301817553386434,-1.1494179492591419,-0.8717601728016295
284,-0.15137865984209892,-0.5911779677745895,0.46180479018880494
286,-0.4539441415800855,-0.04142341989932588,-0.8885544067289736
288,-0.27959555524896584,0.3721475158630778,-0.024682278160494175
289,0.23711378984111842,-0.6222336831209845,-0.247577740599493
290,-0.6519261371046303,-0.5363533039479471,-1.0285001495090098
291,0.6738316749775514,0.1630108668133129,-0.4115326230162573
293,0.5514542914135266,-1.03874430567644,-0.5902798786965587
295,-0.20786343798451912,0.20928913865893817,-1.1109204985159453
296,-0.22201282853535723,0.05405029651750266,0.18655445796798573
297,-0.22662237704015722,0.7848228870038709,-0.8362272538292195
298,0.3701585097608632,1.3386958966665052,-1.4622896262243565
299,1.0716665443361266,1.3506859282710209,1.2907299413252482
300,-0.06260355810398822,-0.4415679628433223,-1.0725564761695525
302,-0.3165850238305287,-0.26282051498528425,0.9394022700094429
304,0.19957670022071308,0.3288234134649105,0.6690771572117855
305,0.04276469201720476,0.6619137285911296,1.4920262996664766
306,0.40384205171027043,-0.0706887538926856,-1.100624655383902
307,0.6909402022005724,-0.7654463403587146,1.4125404543929028
308,-0.43193390857266256,-0.2543877351983756,1.188690010404188
309,-0.0736486779807088,-0.5429291106749301,0.428686109493337
311,0.7054751768245611,-0.6113025070491128,-1.0282100157140355
312,-0.0518693114989256,0.12641352800213326,-0.1700776298068749
314,-0.4841219760102276,-0.30103251437263295,0.19952034826179266
315,0.4898938082170703,1.5558438217328947,0.06518022698813349
316,0.14480960725685502,-0.10041020808873093,-1.1341414714073401
317,0.441245151408599,0.8660313428666325,0.6698124242425383
318,0.5138834887412473,0.5091175649859563,0.8675215337627935
319,0.018671524993690552,0.2694849179771049,-0.3802911028336773
321,-0.04437153334453896,0.029536022313844168,-0.5315637357069043
322,-0.4432301957349419,-0.48839314539064727,-0.8056225431234101
323,0.7995008306780211,0.7449035428255363,1.2844411655195778
324,0.501993587600012,0.9975862091703988,1.3446008971101688
325,0.5478371112685194,0.08762269584163349,0.8016244319867939
327,0.04360747612570201,0.1672440611738362,0.2456506889273051
328,0.601442745328251,-0.3952066905080876,0.16288016838324515
329,0.3463398921756726,1.9870768492105937,0.15527835986456456
331,-0.5791507874570763,-0.5626373762922682,-1.0032742762675517
334,-0.04454314885062148,-0.5670418251164464,-0.3766392847615006
335,-0.052043895692281905,0.4145358825046599,0.802572960032724
336,0.026116425979962277,1.0646122082300868,-0.09731804317748127
337,0.7078213691974056,0.8797310053720945,1.2130276916385818
338,0.2639742729375863,0.42770336522678176,-0.0286697304511207
339,0.15234585793911176,-0.35349766448139536,-0.16534835899942815
340,-0.5012106933979251,-0.7619844495528959,0.30710953561356413
341,-0.3801438700393186,-0.5352905288472007,-0.21420086652507664
342,0.7620300368061065,-0.641616979020034,1.0819040276652006
344,-0.075526260145481,0.3687855050390358,0.7952762410838752
345,-0.24768834284289468,-0.9094252603864361,-1.4102349546145216
346,0.7654478722407252,0.7713765113264265,0.06535296439869065
348,0.08281763096004585,0.8850839749468978,-0.05215866217595136
349,-0.20270672334572692,0.021975534189098825,0.45865407711505557
350,0.21619018385074296,0.6208189149558182,1.3502300077353513
351,-0.658666085474602,-0.853387079677647,-0.6779031469971151
352,0.23323482648990182,-1.0497487968864991,0.24184718124674187
353,-0.6210585796819215,-1.0805401878972902,-1.6475800431648493
354,-0.4278535285739587,-0.9102185592592159,-1.327176170890243
355,-0.5730993218945566,-0.42250640665114575,-0.11337251234280885
356,0.24048747401753084,0.5398741510691364,1.1855306859399237
357,0.18070411784697377,-0.3812783407581235,0.2616188150373318
358,0.3879783682726704,0.9546696546583289,0.4874110403385266
359,-0.2929361262218515,-0.5085795237787617,-0.5366007491771387
360,0.2609002515007759,0.03868115731375603,1.0014378914221984
361,-0.2503901156484735,0.0392857475931654,-0.39981095796726585
362,0.27508591909546143,0.4378615737715863,0.1512697920310959
363,0.20450278875702846,0.5162923444113895,0.04483563112528487
364,0.21007143008842727,-0.8035138024287638,0.26077734771082145
365,-0.11802385011314598,0.17046104187586053,-0.6210375177604766
368,-0.02354283168244431,0.8631104458165105,0.07164446339148114
369,-0.50804424736628,-0.8784243160827725,-0.6659555124777357
370,0.6786075448133236,-0.03977663259485234,1.0273123172627887
371,0.6303916143142729,0.6619872991008733,1.2626361807486515
373,0.5375872739493064,0.6670791941846899,1.194203846298476
374,-0.17398107186684306,-1.0375375988496423,-0.60746868664758
375,-0.2260522323479307,-0.9156460640114465,-1.1161237571993055
376,0.05926266437800255,0.47885937692786246,-1.3539909907475254
377,0.11727410225371268,-0.11436658872259196,-0.41586528329026906
378,0.3466887659574801,0.4385953988175404,-0.7513366631987948
379,-0.36017563674826897,-0.6223321364168068,-0.9036870465858652
380,-0.2539009691492955,0.1866531076394719,-0.10920062457368665
381,-0.7730508254827784,-1.0655097374485447,-1.6628336942295951
382,1.0337543777891016,-0.5634102010415,0.2340992786084392
383,0.7493552468512448,-0.687470940625025,-0.7644482996779612
384,0.5205789918563112,-0.6337142335394181,1.1789329922305587
385,0.1301650565913963,1.197007108595319,1.2086348861681675
386,-0.33441466234883854,-0.48224717928100574,0.11186941348521094
387,-0.13740099603639838,0.16292271850443046,0.1454226312284258
389,0.31956540685303164,0.08437548670310609,-0.07227523538984054
391,-0.17660356077506945,0.10627843245289441,0.33168550324636337
392,0.09077692719058028,-0.1197976655239127,-0.2883028202626029
393,0.294283848654429,-0.005332475790045297,1.1796085781569885
394,0.5305511897783156,0.911508968720049,0.8438060527245249
396,-0.6245304963476384,-0.24663825107410567,0.8401893310224935
397,-0.56070115482083,-0.7160952611443574,-0.330090708818952
398,0.30661767209693047,0.18187259489943924,0.8020852743315663
399,0.015182453839038462,0.2248946476399681,0.8658398187749542
400,0.15690779075626168,-0.01587098467000987,0.14205690539932342
401,0.3462537816715511,0.027662778505091162,-0.6052256089256574
402,-0.5636765538303358,-0.8150222667345047,0.05968239474665732
403,-0.376710221746916,0.3909905912662173,0.44794336262125733
404,-0.15310463040113031,-0.65497750226463,-0.30965819805549627
405,0.5681332353881948,0.9860314014697995,-0.3781852136652492
406,-0.4348807717922068,0.12289700324884319,0.08045688242946081
407,0.6163619515984411,0.037215213783015275,0.6260763313944384
408,-0.3792270541945749,-0.1079481441143716,-0.1274330368077639
409,-0.4004234346970558,-0.4276192618307744,-0.8140843787853405
411,0.7544797268990427,0.24337864568937712,0.6717875455506332
413,-0.42871407860523986,0.05471954191773235,0.4751054911646044
415,0.4530275518597816,0.22555256585680641,0.3628844042006124
416,-0.2124637597782486,-0.7147058010900473,-0.38814560960257455
418,0.8515498545384927,0.8221753176830862,0.49293974001192065
419,-0.28994527690013794,-0.8330800138606973,-0.21637188751062342
420,0.9325085878193453,0.284782797301013,0.806420232323986
421,-0.7005268177157131,-0.6050674219162975,-1.0725880003956103
422,0.05178730036077889,0.34881871157264244,1.0585719804615208
423,0.30350720294650724,-0.3120902408827454,0.6683151689815978
424,0.10936034565484906,-0.8736459751018645,0.35891037666366404
425,-0.348615438118988,-0.5669610936253185,0.01001336135195205
426,0.3284752757797008,-0.4391943915203756,0.6675687364923382
428,-0.182386287561122,1.0831977592491435,0.8385377416108628
429,-0.005045910161580788,-0.0871803453658938,-0.17331576160465137
431,-0.23665999710014177,-0.9200579431114781,0.6981335334740049
432,-0.630441600461244,-0.5428872494214185,-0.49299948404320093
434,0.5903556169211577,-0.21692084480130544,-0.02196576874881187
435,0.011666544863583863,-0.26745230578419216,0.19438180962716378
436,0.09263108815873888,-0.35029333151886993,-0.17754157287004874
437,-0.09574133796454418,-0.21971466506636075,0.1607349020170507
438,-0.669660646193555,-0.06610025086683465,-0.12747720989646513
439,-0.15386722470066044,0.2747547736936914,-0.6750031185838687
441,0.13296933407163286,0.7513776869717317,-0.22918776160965082
442,0.10405200152578009,0.8755613666581112,-0.4864972582549308
443,0.20653100538914151,-1.0269166611738156,-0.6723978669931516
445,-0.7992838657261536,-1.0332132133116771,-1.6151463720046173
446,-0.10477899308223022,0.7780337217576808,0.7419408699555372
447,0.8591186539582116,2.1644875959823593,1.5392615586569416
448,-0.5730570015456832,0.21762930479118042,-0.40386715987258315
450,-0.588554015057072,-1.0561301867523307,-0.5304974280991183
451,-0.4500544315078813,-0.5216961045544563,-0.6591848215717372
453,0.021770650851027806,0.7712597751959468,0.6469345860727957
454,0.4173380823403423,0.2733946810767403,-0.11890158910557985
455,0.28719300374377627,-0.16230623791311163,0.45021699505114304
456,-0.1688895052572409,-0.1993426512693485,0.8646882694457185
457,-0.5841099592466437,-0.7963710526006011,0.9942082492654318
458,0.2066095621203366,2.0111862893896517,0.20040578548711008
459,-0.021429107930538285,-0.2817972181030097,0.6113986534142793
460,0.47712908273843424,-0.2857008260284701,0.532001438912462
461,-0.5296851636961846,-0.9543857449066016,-0.940167813865995
462,1.0097483542942296,0.22360395878636777,0.3838966331945641
463,0.3040689219907303,-0.3959759210084846,0.9291133823281491
464,-0.21546738964975762,0.06212601737169894,-0.3855209665330034
465,-0.5807854828877437,-0.6144850143657636,0.26116197057001295
466,0.17567742806017766,1.2625669092330254,0.6017709255617063
467,0.2552519868799451,0.7462474505760318,0.08917432682274212
468,-0.36499697400105,-0.38055144033845406,0.37326956079808205
469,-0.24904919076004223,-0.39865919559669394,1.1599419964874884
470,0.16756657274928669,-0.571956519549424,-1.0950261229597698
471,-0.07717085197306878,-0.9005116117946467,0.39108081476164325
472,-0.5082525257796228,0.8290759323893151,-1.539823123038385
474,-0.3535304250364814,-0.7565378633877974,-1.093951589478909
475,0.8088080043037802,1.9195140627132758,0.7107891876677506
476,-0.3989674669991047,0.7290480345997777,0.34198784075404653
477,-0.27174628946102886,-0.8700212772022389,-0.8643496470229751
479,-0.13755057903064477,-0.3676412174784867,-0.6913168330713837
481,-0.45595246360068054,-0.6354819155331086,0.10695990588383114
482,-0.007744154582183898,-0.73982703619654,-1.603197103109568
484,-0.20290449093646457,0.675101094877902,-0.2304922876388263
485,0.024739069829383953,0.19083605025236766,-0.7010876214232704
486,0.20297383464382882,-0.27719751936935605,-0.21147508708943832
487,0.1695138694059098,-0.5394860355428793,-0.286676641449116
489,0.7730877295745184,-0.56701592196854,0.1698574789036754
490,-0.37732974725147067,-0.7851764028536385,-0.8288764219523499
491,0.1412956552589454,0.1175914708835371,0.29536579728076573
492,0.33798819111827305,-0.5124278912340806,0.9854940512316253
493,-0.2643982581460846,-0.9601772963057305,0.49732825383800805
494,-0.7728840696210932,-0.9690795021387429,-0.854412988884406
495,0.45079382119265593,1.2131078802475341,0.4691291093802157
496,0.32573159801602125,-0.0869257800978057,0.5419748599299803
498,0.38199566863637524,-0.3756553632476473,0.9119887560955893
499,-0.1263823682056188,0.29204828138199995,0.40159061882387026
500,-0.9359270035860466,-1.0010127098785644,-0.5229816148869945
501,0.08524550541080492,-0.15258480952792242,0.09622873533826873
502,-0.3060400652508882,-0.573278030493926,0.26592438508892524
503,0.7494852346134705,1.8072955600966265,0.8899420301782266
504,-0.364450219952749,0.6438934194434058,-0.6229719117302147
505,0.6237345104241552,-0.14513648924411807,0.12541699590196817
506,-0.039034231455413154,-0.6285929253347564,-0.7697226517361
507,-0.06697660232811929,1.3426264655530207,0.692234711178047
508,0.46131110258821906,-0.18058234197667156,0.07764998489159863
509,-0.03181853481039096,-0.8119512818734449,0.05775735788631057
510,0.24480535280246338,0.6716056705502118,1.3443840599183228
511,-0.06748806339073733,0.3215857765564292,-0.44479177054806696
512,-0.4518591969520342,-0.8724468956500802,-0.4883671532685394
513,0.9434498891897649,0.6056344215545647,1.5038591875784106
514,0.23288996984422672,0.22481063679761049,-0.21729570130441853
515,0.05010165819530177,0.7067334531042281,0.5957601498225512
516,0.6833583363539586,0.1279757875909567,0.18300440644601712
517,-0.2112424650052115,-0.2626486947349848,-0.2914583657546492
518,-0.2502637489464534,-0.0020177895074409294,0.3195286296043201
520,0.1560090976615712,0.49030739454455763,1.3223417658492653
521,-0.11085170808755418,-0.3213359663572568,-0.4678957170667763
522,-0.6468539942546856,-0.8383486080268111,-0.6000609907461179
524,0.04308809607532965,-0.6764263786316479,0.050937253033203594
526,-0.8249219269806802,-1.1772624117960366,-0.7918292225474621
527,0.21988809054702801,0.775818667525281,0.7251834575389486
528,-0.046497288100583234,1.3699369487232136,-0.17306142180668324
529,0.2281770488912985,-0.11966057530618575,-0.34344044843872634
530,0.23218277856543992,0.14293420857935835,-0.4826282065169549
531,0.0860122363567487,0.17668699293042175,0.6017202306965712
532,0.39371485906724824,-0.27365835037803937,0.14588979684931064
533,-0.009339486084202816,-0.47945642711305636,-0.039148600110822274
534,-0.49579033480412743,-0.18441260973434956,0.8891344243962045
535,-0.6173363424066463,0.22193347704948937,0.5854219290992763
536,0.43167420937590584,-0.5085881708533123,1.0313410190370913
537,-0.17710887812599035,-0.2882580493648412,-1.1559118331211664
538,0.25837088516972395,0.6712736148315551,-0.04389175945697707
539,-0.1423042713439851,-0.715577817965923,-0.38885703931877574
540,0.19582270043160943,-0.24400357440190756,0.5423600210281685
541,-0.2964411920517635,-0.6811449405303202,-1.2198733784581384
542,-0.6645373510826786,-1.0101089872278577,-0.8513432264096863
543,0.378576222389279,1.1691780898945396,0.3253378574817173
544,-0.16933091730970123,-0.7826042364923557,0.4456159246979586
545,-0.2504674244565278,0.7452409442039896,0.49921378778665704
546,-0.33982458905691715,0.36602085596803846,0.3046820701601015
549,-0.5888277513008564,-0.9870276107931597,-1.0347159360034288
551,-0.2096377637645315,-0.497295387971798,0.3674557396060409
552,0.5055757137882704,0.46268651652045806,0.4381928540389344
553,0.00321886165652591,-0.8905958316967116,-0.5116394403377162
554,-0.552675396471616,-0.30269268404400146,-0.2461761697853515
555,0.7841165047116758,-0.1667806061643201,-0.05998137104141682
556,0.41021236376625936,1.5561281379458822,1.4828331687134442
557,0.3531745125445516,0.9910095365828331,0.3626278772841837
565,-0.12059210874540714,-0.558411183332452,-1.6850960182493298
566,-0.006895463473497825,-0.07006799286837002,-0.5786715384054438
570,0.13905332710192467,0.8584625238418694,0.9146476254735688
572,0.1520840147134063,0.33644382379568505,0.06131307324202567
573,-0.22291197294111867,0.2365694773811156,0.6448920760764711
574,-0.278405989653444,0.4422883085596821,0.3171551058319778
575,-0.09218391413241195,0.7625996689946013,0.24393606060186673
577,-0.2629556345774911,-0.33964957544054614,-0.5308962730862069
578,-0.7747077718385391,0.11207119904198899,0.3002393543779096
579,-0.3484814266755414,-1.0605643098814372,0.5274724870130617
580,-0.4935141279307926,-1.0686140200877512,-0.3303550441341484
581,-0.34587217236895684,-0.0637912314967456,-0.4661040356484684
582,-0.13400274584730182,0.9089155873040202,0.018943749854156276
584,0.4182427048725941,0.10995541087781474,0.6442458538012785
585,0.4187177203536422,-0.175111964782968,-0.5894409743481095
586,-0.1951181271131458,0.8281301572462312,-0.009138028295953851
587,-0.06268235667219434,1.1276347362061754,0.865818070581607
588,-0.522879150725129,1.7841749019633728,0.9328320863308248
589,0.4009868664367967,-0.23911292467587406,0.46511976894060836
590,-0.4759017862050364,-0.5847615639620016,-1.4719705323287076
591,-0.18785508287328612,0.1796404477947776,0.16957488503461265
592,-0.14951140120087356,0.12561120589968214,-0.2800185692000114
593,-0.044710733055814855,-0.9965633515497865,0.6934891329630157
596,-0.4200497292204193,-0.473362622568132,-0.3713630593908873
597,-0.3163500210526477,-1.1723349226997954,-1.2796056650089895
598,-0.8146958502261186,-1.0324243795298667,-1.57538847877474
599,0.34697759672944717,0.40621425135305145,-0.24662883694433824
603,-0.2681267652884278,-0.01048117606230986,0.035640187155388775
604,0.1535432773224936,-0.7105971526739403,-1.4267390609341786
606,0.13116004814482354,-0.2117991578617235,0.6540591148802717
607,0.2412192445515472,0.30778803239563896,0.16665770544937303
608,0.6046953384629727,1.677194120062442,0.7066744167390201
609,-0.6732282561744766,-1.0646228940930835,0.09438622694647261
610,-0.5755640854117687,-0.8026418756036446,0.4334513805656929
611,0.015089455049721237,-0.3888801764755489,-0.4590049088544708
612,-0.6878529774275421,-0.5587034540860188,-0.6607427587170794
613,0.25184524741934333,0.07395384879828275,-1.092974745413838
615,-0.4511336624440955,-0.86769777868019,0.3462208731536942
616,-0.7201934060451483,-0.9047370537839832,-0.1571771856025671
617,-0.047720365801835,0.5765995749639179,-0.8193935017021534
618,0.34620686106507365,0.03553889469426845,0.5325477715596788
619,-0.13675687129212455,0.024482358515390976,-1.3970049067038737
620,0.6374702490668128,2.0117593785108983,-0.6478820371323014
621,-0.16538920189725684,-0.8528580152371535,-0.21977048417870834
622,0.4050855711565377,0.11439521834408266,0.8657638740971816
623,-0.24321058876172744,-0.24519802691999673,-0.18465695637804608
624,-0.43858082105325397,-0.8704404438783185,-1.6020304923892126
626,0.667226029301744,0.7634647860526624,0.604056657753808
627,-0.27495817954019786,-0.6195583319034182,-0.1762349159049934
628,-0.7252491069414657,-1.1723349226997954,-1.6850960182493298
629,-0.27090844703591593,0.784190899725599,-0.5559829427974858
630,-0.012994760652967868,-0.3134454504259471,0.5320802175846342
631,-0.08360294124626397,0.33011465485861724,0.606496906614796
632,-0.19328378928929213,-0.5932370291357515,0.9117828906893111
633,-0.04892970688074878,0.29946925382736783,0.15698679325416284
634,-0.07828677374240003,-0.9276139973419246,-1.2731936275723745
635,0.24393008061004323,1.694875340762335,0.21059091112545916
636,-0.26174461197432275,-0.9364208207531957,-0.8324298398021411
637,-0.17823368039471443,-0.8069293110757296,-0.36506816827683203
638,-0.41066914602234494,0.5019649964371188,-0.12229559134685539
639,0.602758205305169,0.5929543205878218,0.6905150707038636
640,0.898019031752995,0.062258497793478446,0.00252060905597698
641,-0.21059853707556575,-0.9994712855863324,-0.6335994798964877
642,-0.21132586897972622,-0.1703927734741942,0.17521871124882302
643,0.17937040096247936,0.44173947633647764,0.4782299529493893
644,0.7975445409625911,-0.3659956786488238,0.15665522225233333
645,0.15061290469361455,0.6840299305342812,1.054105002610977
646,0.7815996041478258,0.3117959149269896,-0.17111024679229278
647,-0.4660085163157382,0.1502030377471398,0.8910478015809589
648,-0.2411403808005642,-0.9373423994482927,-0.7765755714827163
649,-0.8509939931789894,-0.7594515817120799,-0.6476272563116738
650,0.4370774610730901,0.11503959848206335,0.05162928321027214
651,-0.2633419319344369,-0.19856105343574829,0.48196230143826524
652,-0.051565567579279936,0.10279873189264857,-0.7905407936847306
654,-0.3389342495417586,-0.2584540459343162,-1.457591649056797
655,0.22480798502931845,0.06632958005344457,-0.6406807858296865
656,0.3905418792375148,0.9743669830537467,-0.7893310146507574
657,0.33008325548010853,-0.1425112270154001,-0.1034122403495111
659,-0.9008582020442923,-0.5171455181670686,-1.1867105990718867
660,0.453503587089895,-0.20317025238684153,1.1813231360736463
661,-0.6921745228219145,-0.2705518277790227,-0.8063360825716712
662,-0.10921210216881304,-0.5484431169524219,0.26048316293755863
663,-0.24691296751718156,0.9009363835748903,0.8624188323781853
664,-0.09258865164624047,-0.565982265409736,-0.3630155105272761
665,0.26152773900816934,-0.9513024837904394,-0.7277051363206771
666,1.067207629069551,1.396189262746706,1.4880204171900235
667,-0.29075702167982836,-0.3983234205415168,-0.2389440060829653
668,-0.3557053024018266,-0.8181375967099194,-1.5639138580697756
670,0.42543054726244667,-0.3269896907393438,0.43992545874126693
671,0.14120330428851932,0.1720991499202397,0.3544529022616021
674,-0.4639037479218839,-0.7898670143356497,0.5699215654879205
675,0.32623689085837515,-0.29235081730198004,-0.289628694967271
676,0.04837001709805355,-0.4327753294200307,-0.0025257823413328204
677,0.22356517538753787,0.06886154423302183,0.9815735690440437
678,0.4617452663680166,0.6563815623990805,-0.5257854011697882
679,0.11388338923543041,-0.14189322490659972,0.04196660717329857
680,0.16896897655950152,0.1416798378899628,1.4692716249059232
681,-0.13229723086559356,0.48165149541838476,-0.5719606150066986
682,0.4075138364747435,-0.32072847321384906,0.7758702990400419
683,-0.4609043177121875,0.8510198381831947,0.9834561684173062
684,-0.32451691148438855,0.2916261312157949,0.618228501028
685,0.011472667924551733,-0.2639547036603581,-0.5751622233664047
686,-0.0034200031767007144,-0.43557001563047143,0.30962168637696613
687,-0.5207333075771072,-0.5575073934568601,-0.17978645626454753
688,0.6199359510212562,-0.17992303900588577,0.18756523345241802
689,-0.7712185071981357,-0.4663422744212409,-0.3396582556822376
690,0.6524035744731818,0.8027725684820706,0.36286997161639256
692,0.6206046648583099,1.454112379062486,1.1451439244160535
693,0.698501828475061,0.3392978479638003,0.33537222872231504
694,-0.19549245825867623,1.0073955855499288,0.38980918371430096
696,0.21398028345504505,-0.39002890937656404,-0.5899719578609115
697,0.460465445365451,0.17069647867697776,0.8996638607842867
698,-0.22894557053736173,0.7213136988986875,0.6163988941240378
699,-0.2991193378742592,-1.007650865145245,-0.9143730906685459
700,-0.4483092622306513,-0.8034600874900624,-1.6151463720046173
701,0.14160255079868245,0.7840990054683689,0.23802204316949793
702,0.40667454064427533,0.7450618045817287,0.6794137714265871
703,0.3896932879778561,-0.0648611127286088,0.9307823252237197
704,-0.2656445307471712,-0.934068026762171,0.5497796529682097
705,-0.15272988996366255,-1.0199135265668606,-1.0041199131354848
706,0.02723770052373667,-0.4034628019799354,0.5517677242758858
709,0.2530527143509992,0.23520414504097792,0.19622359549800486
711,0.21266260324221403,0.04937371191665316,0.3068197873805664
712,-0.7859229238723937,-0.9957988356959182,-1.589493851317859
713,0.633863851118725,0.3927320573448017,1.1989223190954628
714,0.1730080230843603,-0.0931883770832841,0.02847583131725709
717,-0.3420768789151662,-0.5736881595020371,-0.9641170854403869
718,0.7282929718057745,-0.502723046900404,-0.17081111427558515
721,-0.123526795532131,-0.9079273114910758,0.045394084773374546
723,0.868734387135106,-0.709405156613444,1.3498580606285735
724,-0.565327239325405,-1.096298771773848,-1.0985551946067194
725,0.7379525766072327,0.7257696633613373,0.8040002604952414
726,0.003065891512584979,-0.45057027577842734,0.019331926892273546
728,0.32758419597075633,-0.9967779274441539,0.5519969654854179
729,-0.4778715352559874,-1.1287830901889508,-1.1939070889042829
730,0.4911581412280668,-0.03908554877973025,1.1246136580148862
731,-0.22374393869248818,0.8194399284887787,-0.3651040453081288
732,-0.21802322948839364,0.3082039793600953,1.1436119216077758
733,0.1612676669997253,1.504174332370645,0.8054778268039103
734,0.19588457912181614,-0.2714142930055723,-0.703684583135912
735,0.13989208913761697,-0.9986251871548438,-0.28146038995270933
736,0.45279271522601355,0.46999623176645217,0.7680009721886774
737,0.5919683034598003,-0.047972337909786014,1.1937840112266773
738,-0.5864052061142848,-0.8337956457394808,-0.8244113440945736
739,-0.5336992695004608,-0.7555101762944252,-1.6210088835424707
740,0.21531839778493225,0.9656823092526244,0.5532775433260663
741,-0.577061064734455,-0.605178024617693,-0.15451767021916496
742,0.6478001018082915,0.37448433864991804,1.021954190738612
743,0.16777618071207603,-0.5833524703676682,0.8589298974335188
744,0.4138133254041072,0.07731945557228963,0.5190877116179132
745,0.5723198405920225,0.4397948285799518,1.3559756260331408
746,-0.37557627147331063,-1.0332132133116771,-1.026840612229089
747,-0.5712438549475058,-0.7596617885042198,-1.4086672412256611
748,0.7574410711299656,0.6448654479892533,0.5527313391578985
749,-0.08728875520278012,0.07916143124398743,0.5735858694069955
750,0.12627337581414913,1.0858568555086907,0.8162425017720503
751,-0.15043015569213503,-0.24318487165522434,0.3255364446484634
752,-0.5807909085927714,-0.940259488574215,-1.6850960182493298
761,0.0017793402065228274,0.21566825634978584,0.25480242702638206
763,0.19854677867501294,-0.16305843696870234,-0.355629276722587
764,0.9547415585300727,1.1754516356065343,1.3342483964159495
765,0.1284595375980406,-0.16561000679062307,0.39179287688059095
766,0.29395973252043484,0.804139679437442,-0.48915756624219786
767,-0.8214443819723296,-0.0675514640362647,-0.29913745693691585
768,0.19250312828076313,0.8012025554468835,0.8874853205785662
769,-0.06741127929500408,0.09584068092008001,-1.5067895064452455
770,0.31336010211028464,-0.35419794959521106,-0.6122004066760516
771,-0.11807290453291286,-0.5162976359854647,0.15681270943594638
772,-0.6127386255106344,-0.3990037511285121,0.2296799988807971
773,-0.637624290781065,-0.010199540885191594,-0.046353027580579687
774,-0.4701974697909723,-0.29621808260869337,-0.7613461310291181
775,0.41485588622648106,0.8042099339016653,0.4176059133283862
776,0.29619192594935806,0.7220762688667234,0.9396769031762269
777,0.49982297415639243,-0.12388592172691461,-0.9969470624071652
778,-0.07848165650369032,-0.671625383116042,-0.9683320136302992
779,-0.6241995677166428,-0.4239200528460761,-0.2789905596299107
780,-0.609913672902602,-0.35984504683108814,-0.8945890033788928
781,-0.4254155992350164,-1.0456106199165156,0.9209869963431974
782,-0.3231716387609963,0.06281669447292242,1.1327031032240868
783,0.6570661685369201,-0.18439977986471248,1.3468816916525208
784,0.2854068400213892,0.38400608228006744,1.0655336536611342
785,0.6263550998693891,-0.22170554937186432,1.496850514623422
786,0.6858156070314207,0.2517198523904347,0.3495914805663732
787,-0.33226476015969103,0.8532335012100885,-0.9951491104226389
788,-0.3423429702063716,0.4320403504774771,-0.31284210987806255
790,0.42618374863363484,1.3768097568461275,-0.3512854445250423
791,-0.767582240528933,-0.890078527731469,-0.12330780969169816
792,0.7632092596080151,0.45047004921360806,0.694010211923218
794,0.42250038423270986,-0.4327069788587106,0.16165926500560476
795,0.5113851453457738,0.9938144070115131,1.221552702253564
796,-0.7387875252120801,-0.8406785368408982,-0.9013706690447457
797,0.539334113548884,0.36841869095472285,1.3407542031311088
799,0.2969716490466122,0.6242354854660481,-0.05438171216486584
800,-0.2001910132639706,-0.7797925068199688,0.0522222797590664
801,-0.6167385319716792,-0.8559935832274929,-0.9301130010927106
802,0.018018632047308303,-0.6211037955833201,1.1297884073899496
803,-0.4611686416978178,-0.5623538993656074,-1.1569687628018772
805,0.6955446064546282,-0.23561075475990909,1.3725591963123063
808,-0.5020174354798665,-0.7429479539056154,-1.273887170003363
809,-0.6625275967188251,0.667552674762911,-0.21225249931033235
810,-0.22566822688161456,1.3314263539197728,0.19628977782123908
811,-0.14872641836064185,-0.01880792332509998,-0.21021138608804935
812,-0.4143681192980559,-0.89325457810217,0.04835849306805318
813,0.3209747664755309,-0.45431313507024496,0.045916318715575374
814,-0.20555351813139935,-0.23442111523148976,0.028249659168424694
815,0.34083569866177665,1.002193183365276,0.6957807311768842
816,0.1632719873349815,-0.5332955327478272,-0.02257877460277774
817,-0.28492562648400055,0.18631432185309185,0.9434494397494904
818,-0.1437031220832408,0.88899185731841,-0.8659398729350154
819,-0.3824567539086508,-0.13221698469346363,0.2567803326110216
820,0.718450082737612,-0.07048234016536543,-0.06888778448117903
821,-0.5931327629791665,-0.9540491679163744,0.004418968734448657
822,-0.06441821921970439,0.5993721544921038,0.2598310785467771
824,-0.733848200382669,-0.8907743536056367,0.474593602108805
825,0.37127039763780634,0.08213471945221724,-0.754712270409455
826,0.6586802987860687,0.852124248454622,0.4255551232374848
827,0.6409146267962704,2.0102740260988354,0.691828324398747
829,-0.10524108714221177,-0.305086604749168,-0.5352230698575546
830,0.10569951757893684,-0.5401181800081711,-1.1275392235831911
831,0.1530851632289734,0.2589885778225953,-0.18615169622758349
832,0.3976687300194882,0.04888507718391111,1.105025600326819
833,1.0717888777503786,0.9039686282271311,0.4134594617137941
834,0.7098930463258479,0.6451408061774013,0.5201728382419248
835,-0.8029073743283669,0.5228251815091255,1.3967846527946386
836,0.1403328693553377,-0.5663958533211866,0.9717361062903034
837,0.5016196320937908,0.8243576721002412,-0.02259471279295422
838,-0.13148896790345416,-0.08206196166646355,-0.7121057097325196
840,-0.42366767184495585,-0.5207314745888711,-0.34334529971068406
841,-0.09920112700678525,-0.10181956706243156,-1.1520442437569751
842,0.32069657304855753,0.4173809392191874,-0.21394123796868414
844,0.190621310993641,0.7383365193186912,-0.37106692611685255
845,0.05562652819223665,0.29717684601728783,1.2588070642962927
846,-0.10133816983436053,1.53996186969065,-0.2130894929754798
847,0.6690793248507361,0.16591424919536985,0.5006521936434063
848,-0.3899203427040544,-0.39642311615514436,-1.2978114232294442
849,0.33273442523132934,0.2430533189786594,-0.11102170574513466
851,-0.5556436431471607,-0.42021151078375296,-0.3821914666023007
852,0.1836482519101679,-0.5232189033328334,-1.5073671122595642
853,0.8777042840137019,0.9810986123868553,0.7209141464891815
854,-0.2829181969115522,-0.382022820360843,-0.9529442778252762
855,0.044389621155739134,0.8160298824890091,0.12307955399333889
856,0.2500874231162302,0.8032401908526026,1.420610368257015
857,-0.3741942470630284,-0.6679132065923246,0.3456653850525368
859,0.40787801069319213,0.0621259398797149,0.3577805293751658
860,0.16510206012471876,1.322218746308492,0.20846202618599136
861,0.00021053928797794275,-0.4296970735261683,-1.0602047216373647
862,0.02442216419904909,0.15777064805037447,-0.2324755600812809
863,-0.41365455280402114,-1.0332132133116771,-1.376006047583914
864,-0.19100468962122108,0.6973663626348221,-0.6658793007280135
865,0.23393921857067587,-0.7584565701953003,-0.44478049869740877
866,1.1470349459647853,1.0873566642873884,1.2562362860654925
868,0.1000837606032539,0.8484512814045622,0.41270306879964647
869,0.08796902304017384,-0.7949138425731896,-0.39722376701372264
870,0.11354200859536637,-0.5211634587509433,0.5300713855174968
871,-0.33765435994537407,-1.0289112539980052,0.29281932208505096
872,-0.5734835787678942,0.7356835395228785,0.19035765577115893
873,-0.11526149047217694,0.5918576874104278,0.7408921503450828
874,0.3332835596511659,0.4588088366619093,0.1676659785772542
875,0.10656324408840662,-1.0205656846218303,-0.5947041613743053
876,0.854864750089128,0.6207368880631381,-0.19883699726152074
877,-0.46157015817039104,0.19377870675656633,0.3668181440428059
878,-0.042640631812965596,-0.5697111431296646,-0.010792360628717093
879,0.7756510544651374,0.6381956573392573,0.821016056593075
880,0.7878621267392137,0.07296691960906194,1.0066687913468906
881,0.14608714538215797,0.45635529976248496,-0.5921402504545731
882,-0.35017860886210195,-0.23391930163411895,0.8723814064794764
883,-0.5096828876370618,-0.2514527255411506,0.27188306843515525
884,0.2952488272535475,0.5868733947444884,-0.06049228758095239
886,0.5212225982222753,1.1704843459574439,0.3468293425592419
887,0.17014960184546066,0.3977367098079823,1.0179929053526147
888,0.4139984982189059,2.193414020892561,0.007944563818388428
890,0.5086400349271054,-0.04354953594860275,-0.5345270895840529
891,-0.05368940297506071,-0.3138482727095154,0.7119119500483861
892,-0.2634312400705197,0.4008760017913711,-0.4724515237584338
893,0.3250299653225017,0.04491121097478007,0.7306822856263376
894,0.4961079405911091,0.22495293062228694,0.1388790216522222
895,-0.07871426210685661,-1.0362019451600104,-0.1579348710399034
896,-0.1305833683521447,-0.04687645659818554,0.038842098526518015
897,0.6580733997539602,0.38136818354612295,0.5062962604531259
904,-0.8120224093308839,-1.1711981890019703,-1.1962967657172636
905,-0.5136980155509085,-0.48793239131872435,-1.2308502990009935
906,0.09816215511409405,-0.7228031610345849,-0.393095169013247
907,-0.6910848332555264,0.046778686035394854,-1.654588716119838
908,0.005381014217374514,-0.9207237643562116,0.2744806460504266
909,-0.7714440919688264,-0.7619404998683676,-0.15939704507272617
910,-0.23807010492676395,-0.29961391473338955,-0.27305451045111073
911,0.5185792802229636,-0.3184365329047176,0.24269687589494032
913,-0.4778257064244853,-0.3417398089990451,-1.5880143060369163
914,0.07464975549448272,0.05746897515356554,0.3466358276891954
915,-0.7359778576800298,-0.738610827213425,-0.5726312186696514
916,-0.1273155529339794,-1.0517520197425148,-1.2786289523428862
917,-0.52582377023078,-0.543445593437392,0.4524868955411013
918,-0.5434908031991076,-0.9369710535799225,-0.8644078521524257
919,0.22097177192855458,-0.1246260635975278,-0.24008319660985142
920,0.21715604430341257,-0.2188871363482447,0.3626899970034555
921,0.617179818052982,-0.5946463851738102,0.22962349647371333
922,-0.3464804808434771,-0.8863277497874509,-1.0599288804106277
